{
    "layer_0": {
        "weights": [
            [
                -0.03253320736732522,
                0.03723057843311298,
                0.02959976703809809,
                -0.03326215679471658,
                0.0044155759005078754,
                -0.010591654978429968,
                0.0058516122124783075,
                -0.07964354518756732,
                0.03621397533607847,
                0.03208514810558906,
                0.0345535807123163,
                -0.060592708593412634,
                0.07213634232879823,
                0.07660913309847311,
                0.02215604576029218,
                -0.031178958140396097,
                0.012968714156269009,
                0.04613147882689855,
                0.07509035704065407,
                0.004825709099976016,
                0.00973805860278858,
                -0.004876000829765673,
                0.017142870446411367,
                0.03899330300268292,
                -0.017666376603801555,
                -0.04811500793511317,
                0.049716081672812884,
                -0.009045411497114488,
                -0.004888130721041413,
                0.026585583783243202,
                -0.05261278442588641,
                0.04502666762424098,
                0.005119714413493293,
                0.09410660288074178,
                -0.10627641017727538,
                0.026730148735723023,
                -0.004541113215756379,
                -0.04841540366772591,
                0.006974147452956733,
                -0.1503662934548415,
                -0.019278887827793023,
                -0.03975411271658823,
                0.09327415951281524,
                0.0075786678961355675,
                0.03057090916878419,
                0.0140099515465389,
                -0.03269417016541163,
                -0.07887466580880986,
                -0.0468085656415774,
                -0.05682645071423295,
                0.01550195680691267,
                0.04209414367385275,
                0.07008972240103166,
                -0.011390178173410299,
                -0.026706764769544714,
                0.0010671362616756705,
                -0.0045559727038608,
                0.04651999231838224,
                0.04663063795424022,
                -0.010716848188105277,
                0.12052724639440637,
                -0.03468051151230187,
                0.03398671021493094,
                -0.03188935139591474,
                0.013600405568850166,
                -0.07194801452403186,
                0.08613356002331789,
                0.021573416316070362,
                -0.054120452197503936,
                0.043576494508615234,
                -0.06705869666816919,
                0.00017840770383872385,
                0.023455870086485104,
                -0.02506519304553219,
                0.06971822893103619,
                -0.06609216381239827,
                0.06365963013140213,
                -0.09582888437460803,
                0.09619457344968649,
                -0.0032105979072924264,
                0.013923728303229393,
                -0.016716030080958923,
                0.043047305381694274,
                -0.03969502203614296,
                0.016536568606876047,
                0.04209257936209168,
                -0.03333619129060302,
                -0.009653415465715217,
                0.017620136267471713,
                -0.016254371372305353,
                0.07481292568518018,
                -0.03115663381868717,
                -0.018470482892571312,
                0.020659778047380527,
                0.020178304294158653,
                -0.04469911055057379,
                -0.017416026820449487,
                0.04953222804942782,
                -0.03530712968887913,
                -0.04281171385537917,
                0.07237910501354786,
                0.008477792549754436,
                -0.013298668312456794,
                0.0862394625376592,
                -0.024739102355141773,
                0.03706156685311615,
                -0.0226354304606516,
                -0.05527089568533674,
                0.05436968199684763,
                -0.003944160257026675,
                0.07975249381676519,
                -0.027274784040232238,
                -0.015262139622151743,
                -0.03343240526224409,
                -0.09048897992034308,
                0.1086844472675509,
                0.07710841460544347,
                0.040423080915807694,
                0.04347277577021751,
                0.07525578036965123,
                0.006946298804156964,
                0.041140254893801395,
                -0.07143618903058457,
                0.014869979672776373,
                -0.0033347738463225707,
                0.08201204524407911,
                0.05204499940747711,
                -0.031610329254429956
            ],
            [
                0.10814446081890426,
                -0.05648106429627374,
                0.05420007341156458,
                -0.04430335530332503,
                0.013535146480840391,
                0.07239369523439965,
                -0.053369182439544104,
                0.017126238643496328,
                -0.0035136122517446964,
                -0.009502975554585388,
                -0.008023608049810484,
                0.010253771683385484,
                0.011442716648443605,
                -0.045718839807973234,
                0.027803395814868376,
                -0.03468342350845915,
                0.011482771422747071,
                -0.066280008220324,
                0.027269855512889588,
                -0.02473601657255673,
                -0.008923114941727081,
                -0.008555115282384338,
                0.0260899352874296,
                -0.03816284018054755,
                0.06855214503623869,
                -0.06385474831681277,
                0.011654312114313942,
                -0.026854825801804542,
                -0.08063815173768248,
                0.11256387422242492,
                0.0581936734256971,
                -0.041234239888901555,
                -0.08349637740833206,
                0.01154719778059586,
                -0.05344893739014769,
                -0.06291560159630387,
                -0.008353473145981904,
                0.020591642552415128,
                -0.06645593896336252,
                -0.08338348749759988,
                -0.04788388510489286,
                0.0863617778008713,
                0.07919495521799505,
                0.06304908318451556,
                -0.04724433707620344,
                0.05930929807818596,
                -0.006662746764047349,
                -0.03582924657076148,
                0.009794691865995618,
                0.06873809749693821,
                0.04530713100423171,
                -0.04284204086133818,
                0.13822202525994418,
                0.013825765136535677,
                -0.017445113958996672,
                -0.08510579835442685,
                0.009553551655782004,
                -0.012181960443945362,
                0.01111541456773345,
                -0.03900901270946141,
                0.03311694819676812,
                0.07467493959211487,
                0.02362528282398663,
                -0.010489488690351344,
                -0.08649311009623303,
                0.004763353468152254,
                0.04845129625059849,
                0.007065900278167238,
                0.04215904019715296,
                -0.027845230399188257,
                -0.05552131678675406,
                -0.07229781033263387,
                0.08666688907385983,
                0.022718245495611532,
                -0.027321339150635362,
                -0.0900970217036524,
                0.011677488742235948,
                -0.07074132165552316,
                0.0273572789555511,
                -0.0653988205500851,
                0.03362116293406975,
                0.024278680261992463,
                -0.04279213839521102,
                0.00912172258771705,
                0.09869734652478529,
                -0.056124292202683154,
                0.06878898288836299,
                0.11688998484593588,
                0.06004361507115284,
                -0.026982498596907174,
                0.0044092327241004705,
                -0.0048057345628843675,
                -0.003148391186323495,
                0.08989026533569949,
                0.0027765062857523243,
                0.027193337761607594,
                0.030973824854105447,
                0.1169377494592438,
                -0.042878695959310785,
                -0.003790370783817999,
                -0.06938705333902974,
                -0.030469597582695754,
                0.07329755887607453,
                -0.028216834812798176,
                -0.019081055979828992,
                0.02015050235633755,
                0.06352460194613671,
                0.05628745035454326,
                0.11047572074092908,
                -0.026874885702592277,
                -0.010327025471134238,
                0.06011658859684709,
                0.029408177651468987,
                0.046746128254346334,
                0.0991434896775643,
                0.046650118097118484,
                0.06703883995912105,
                0.0030870036835579317,
                0.07715182141590385,
                0.013435609978852344,
                0.004500333049727446,
                -0.09323096977473047,
                -0.011994042994278137,
                -0.053913562054956954,
                -0.011138968181348676,
                -0.03792527195237054,
                0.020757408606328954,
                0.015471031292913145
            ],
            [
                -0.030553555364764656,
                -0.021747264928886584,
                -3.6852974271117774e-05,
                -0.06994425627583929,
                -0.07905153871065182,
                0.008626224847722361,
                0.0076821932238491574,
                -0.06260388010797245,
                -0.07103272576582745,
                0.07174947711103255,
                -0.016077273556038628,
                -0.004771308930436001,
                -0.0201266314361566,
                0.012028326551500004,
                -0.006371931780608524,
                0.05345904023977841,
                -0.03837173200797557,
                -0.003733732735867975,
                -0.012814734833956794,
                0.06626933702271126,
                -0.027608760850878957,
                0.02937776667643747,
                0.02436250515367402,
                0.044998764551097165,
                -0.014173711497230066,
                0.02347487758615035,
                0.09772500970902293,
                -0.042437710495199156,
                0.08770301781544526,
                -0.07424107745135892,
                -0.037100233129279826,
                -0.0108214065060744,
                0.03517544643827637,
                0.02468594393330587,
                -0.018266189787366684,
                0.06010658953578985,
                0.11050889479413394,
                0.05920991800380531,
                0.05505459088343021,
                -0.06577629869340017,
                0.01847450247251261,
                0.025483310637265003,
                0.07915003978402523,
                0.016231120320357104,
                0.045258030117320484,
                0.029124363390958235,
                0.06897867226214391,
                0.005616652317737774,
                0.018207683417986516,
                0.01749643570967109,
                -0.02107470092650162,
                0.04472340429335381,
                0.06945505003947691,
                0.07846731120411964,
                -0.004019726118348731,
                -0.04565210586743647,
                0.01765595550006271,
                -0.05626061525039103,
                0.0453500077421046,
                0.033355661683369064,
                -0.023186501204339474,
                -0.04141590798468226,
                0.0006679003886768352,
                0.01245839480345198,
                -0.022833820769448596,
                0.039425448565656385,
                -0.05436555417924056,
                0.014652701126924265,
                -0.04006589098179543,
                -0.05704126005312332,
                -0.006251866573494723,
                0.00817234519036314,
                0.056318702054328346,
                0.034263860965558085,
                0.09542840857234855,
                0.0154442780562649,
                -0.04250394858126516,
                0.021454067485892517,
                0.07664056982673743,
                -0.09617791232590564,
                -0.02107204934119857,
                -0.008913691012539611,
                0.026933429316094708,
                -0.05623947666109832,
                -0.03514051450495761,
                0.00037943256377344445,
                0.06924387056144275,
                0.021307469155927232,
                0.022630309289729835,
                -0.07763475129184622,
                -0.014948779336976864,
                0.0661852898105071,
                0.06280062008244204,
                0.06793098992700498,
                -0.00017858119008113288,
                -0.019885947730058348,
                -0.0667783433200041,
                0.01827719016087007,
                0.07217885166197312,
                -0.010425729305665718,
                0.028881141115669418,
                0.04987521507693129,
                -0.02514124940674123,
                -0.024815641999655087,
                0.013338591477934054,
                0.0353155964521767,
                0.06535470596830921,
                -0.01975288107798109,
                -0.06298760723381766,
                -0.04545553394581974,
                -0.002837393373821877,
                0.0055886334636464545,
                -0.021372848758647773,
                0.047327664227181314,
                0.03536002548784922,
                -0.047841060111975184,
                0.012559914622473037,
                0.0451011386516592,
                -0.054389381536913896,
                0.08358752799119565,
                -0.03447649636958046,
                0.01870396484084538,
                0.14367717018261997,
                -0.01445232886980208,
                0.01225492292446317,
                -0.016384371497829505,
                -0.032139810278460655,
                -0.006180441820411812
            ],
            [
                -0.09688825300711729,
                0.020878747717314336,
                -0.04864284708566523,
                0.019790340370242753,
                -0.032804687699131405,
                -0.004227755540327385,
                -0.03004598089719523,
                -0.032457436223879386,
                -6.34378274058594e-05,
                0.022608289149917162,
                0.05812583105281256,
                -0.04874256626718235,
                0.052090880483994066,
                0.029812412373340515,
                -0.04839144169374176,
                -0.04808222737041044,
                -0.014967645747173042,
                0.06006489744042346,
                -0.00765733847380965,
                0.027832813225068996,
                0.02703240878168708,
                0.06934029725563275,
                0.01014535519994991,
                -0.0560858814512768,
                0.04909994198717618,
                0.01518709440039399,
                0.07856059725964831,
                0.01673539227924714,
                0.041815061740492925,
                0.05549944443882291,
                -0.03266659774340293,
                -0.054760761111298316,
                0.030065986446037342,
                0.058766924625563946,
                -0.06124969910402109,
                -0.03521460197459914,
                -0.03900086039976883,
                -0.05644095379169452,
                -0.0383015262079363,
                -0.07899686312759525,
                -0.10315160921704247,
                0.07152138300896582,
                0.02934233170844164,
                0.00904377432816991,
                -0.04144432347463525,
                -0.06674220245258501,
                -0.03831965168012337,
                0.03407430724379249,
                -0.03851591871734725,
                -0.09624798156157972,
                0.076977336464452,
                -0.09572421128207306,
                0.07374024643136609,
                -0.02366477387339081,
                -0.04139010384227694,
                -0.07030395384130521,
                -0.028155456319134655,
                0.09937868886815368,
                0.03668789880333924,
                0.057942505593302863,
                0.06554609192238271,
                0.020261886454686046,
                -0.06494734738439294,
                -0.0699990461619801,
                -0.013641087452323649,
                0.03841873799220885,
                -0.04113243800043968,
                0.03225942481114704,
                -0.06304039545670138,
                0.01541883971178071,
                0.005667122256122633,
                0.013101248899251529,
                0.06274833467059203,
                0.008204201005576716,
                -0.017716441504710686,
                -0.043386823724179104,
                -0.010141295779045205,
                0.010104291629326688,
                -0.041070720635523125,
                0.022631613004803475,
                -0.09101908695458769,
                -0.0028881070772947934,
                0.026856652602942722,
                0.029184448435827622,
                0.022065780609471616,
                0.021153115016006925,
                -0.0010369399743939875,
                -0.03220529191339625,
                -0.0046525888505920395,
                0.01988240874147041,
                -0.02852787026791687,
                0.011395243647876072,
                -0.05912722583989682,
                0.007496033266894685,
                0.04026904263547471,
                -0.047885248521774636,
                -0.008454009777869578,
                -0.021062370392787477,
                -0.08060872592699163,
                -0.006698741795816896,
                -0.0004520186953481551,
                0.020711848152060106,
                0.04103592618777983,
                0.018480977662067875,
                0.021102055959158646,
                0.006845864577232838,
                -0.025054766440368057,
                0.010555911190787744,
                -0.05174720599421253,
                0.018454370997694085,
                -0.06295870897940364,
                -0.031533565294919595,
                0.0002731619004754233,
                0.010070877156768177,
                -0.01462968315271863,
                7.538080952822619e-05,
                0.0046016406618380285,
                -0.08985602042277141,
                0.030863154846929045,
                0.04197498904445536,
                -0.06447960003585916,
                -0.020423162364062827,
                -0.043194372927351295,
                0.02801878150350625,
                -0.016751879089977616,
                -0.05099964415972593,
                -0.0526539373220795,
                -0.0577390656517564
            ],
            [
                0.03686800650978724,
                0.036833019393566556,
                0.1182152382925732,
                -0.006656918159684907,
                0.041009816966770765,
                -0.011289663495228872,
                0.004524221802929259,
                0.08209053452613305,
                0.059286610133939,
                -0.004217348424016999,
                -0.04318793478744287,
                -0.007744645384592478,
                0.10468844037875881,
                0.017882081080651164,
                0.11272146531826809,
                -0.04278613757938606,
                -0.004493643809866122,
                0.013223915436540739,
                0.022614488260371005,
                -0.010398623758611702,
                -0.0013251101203109507,
                0.07790257966910864,
                -0.08413630232487618,
                -0.05302109503706568,
                0.13234977189472402,
                0.06448623880966317,
                -0.03504611867817294,
                -0.0057269606689331195,
                -0.0012977791606538368,
                -0.029671058169349118,
                -0.031166331769066042,
                0.009258334169897168,
                -0.035636457564175515,
                0.07168031582585531,
                -0.03699612904201491,
                0.010131742362697649,
                0.020932152794867258,
                -0.062688425814304,
                0.018548736549781977,
                0.013038607734471462,
                -0.0023878430575498878,
                0.048332699449551736,
                0.05378203288324139,
                -0.02012680165043154,
                0.09016911778038812,
                0.1820154294192222,
                -0.007293175973628126,
                -0.015558438629880647,
                -0.059313868220030624,
                -0.12584040241404768,
                0.06183960908395687,
                0.01627075366294262,
                0.03629098810779757,
                -0.07636378029780613,
                0.0012742072772266271,
                0.045194079775274815,
                -0.05741461141017866,
                0.006954131195953521,
                -0.07100305577575976,
                0.034988186049404596,
                -0.10382841772047223,
                -0.007624983710348601,
                -0.027766092443359387,
                0.016959056616922527,
                -0.05950621882146558,
                0.01455260779568683,
                -0.06298581010253833,
                0.08975781983345466,
                -0.1057725232309389,
                -0.062196796910907806,
                0.0049982320371296535,
                0.03390865941665329,
                0.08526859732522385,
                0.020519485131110203,
                0.03169555156231508,
                -0.013530740554012053,
                0.10429975443340321,
                0.056440844178932845,
                -0.051312757122600736,
                0.06000559585868708,
                0.027949325023283685,
                0.04093150985143389,
                -0.045225813310268065,
                0.05286472764563408,
                0.014165792257584742,
                -0.046002222287920135,
                0.08403249647251385,
                0.04464514555873199,
                -0.024743723738346622,
                -0.08213954240818087,
                -0.101996565443324,
                0.03293646348948839,
                -0.03638650598150035,
                0.07030108340099149,
                -0.03526737231774233,
                0.009717016315934343,
                -0.08771467864686343,
                0.03378486466093119,
                -0.04513864200955028,
                -0.018344577781610253,
                -0.0669658823360319,
                0.01548670462444717,
                0.0009595720105669754,
                0.07237289968514851,
                -0.018192146065525393,
                0.04958233143474174,
                -0.0210786303126439,
                -0.05209399949501919,
                -0.014378643156185884,
                0.031605662206557104,
                -0.017338842125936345,
                -0.07180512664891694,
                0.1223781969689621,
                -0.03237424167708506,
                -0.09346139510099732,
                -0.04944531487800184,
                -0.023130629487811888,
                0.04666449910242974,
                -0.006712779075992315,
                -0.051155740015408034,
                0.009571451223531873,
                -0.012990656705289455,
                0.04934583332478207,
                0.06740027736824541,
                -0.042341563801902134,
                -0.06755724014468807,
                -0.04228325046785498,
                0.05221782097177667
            ],
            [
                0.05515639717175278,
                -0.043371229772965474,
                0.018953099568582307,
                -0.006342780759157127,
                0.04521961866142713,
                0.03884092433984445,
                -0.015592008556778825,
                0.06116939793264395,
                0.005432394890598119,
                -0.08917967757092965,
                0.08514062394113896,
                0.06216941169115902,
                -0.020294139281084866,
                -0.04795131290288699,
                -0.009836279502312585,
                -0.04097959625691087,
                0.028795905672758127,
                -0.11660138840417167,
                0.054798324444427705,
                -0.15428842821324895,
                0.014569630137006975,
                0.07255823869076167,
                -0.030351957350308562,
                -0.0011182309578128718,
                0.060939628148874464,
                0.0026398647471120476,
                -0.040890958720185666,
                0.0046474050036460325,
                0.09883810484517995,
                -0.04409050394321031,
                0.005422291577059357,
                0.003552494258648673,
                0.029092576724443302,
                -0.0043216459603879175,
                0.02591404318506002,
                0.030684139959165992,
                -0.023241622630348926,
                -0.04455465614901779,
                -0.005624294181200038,
                0.0544748127005833,
                0.0014786691308437822,
                -0.043966466253400956,
                0.0762609726243532,
                0.055073505296090015,
                -0.016901966667957073,
                -0.015721041974127704,
                -0.05639031652089737,
                -0.0026988581975462517,
                0.009413966702312567,
                0.04849516213692591,
                -0.06575260330259294,
                -0.04044168031225384,
                -0.001366656898200665,
                0.022304552322374938,
                0.000837215576762373,
                -0.02209325674322482,
                -0.0672325279572528,
                0.07372082557889414,
                0.013731999797172325,
                0.027822295306292797,
                0.09632194160153032,
                0.05581626432300404,
                -0.020126923770580223,
                0.00766910787729085,
                -0.04455250407596636,
                0.0012000487756653618,
                0.033326768555676706,
                -0.05954210167370845,
                0.007366107290311954,
                -0.037366617521861906,
                -0.06624186527543448,
                -0.045316823919797654,
                0.0016441930916515635,
                0.020191592786513723,
                -0.05767008823440088,
                0.10797610428779199,
                0.024433396438507393,
                0.0569749642181211,
                -0.013765745428470809,
                0.04983261908882098,
                0.0742116023411064,
                0.0012707135038710583,
                -0.049159576400720384,
                0.004387507187150345,
                -0.06606964832389071,
                -0.013200523774237485,
                -0.009962465632566229,
                0.021390354932526483,
                0.03481493345708606,
                -0.05131778777782278,
                0.007342687343111772,
                0.07210895974435477,
                -0.06402819353642723,
                0.04296269529788752,
                -0.06366559474846391,
                -0.007828493883630008,
                0.02018518365418295,
                0.09229160200413819,
                -0.08229678479781612,
                -0.054540992729743186,
                -0.019654593814394196,
                0.03285162196865949,
                -0.11020469338753082,
                0.04740910538352024,
                0.0657522388613055,
                -0.024499146719735607,
                0.02639759225915738,
                -0.059315440018689554,
                0.0540519305740433,
                0.04903012207933135,
                0.012410089773027913,
                -0.05501010727746253,
                -0.0034598946973851156,
                0.01396618013398928,
                -0.048153815445771714,
                0.018226511362285612,
                0.03367270437753044,
                0.007299821670571009,
                0.08691675763998254,
                0.002316708972822688,
                0.06634323453867788,
                0.022660215492045728,
                0.08069924962089568,
                -0.07899428923231501,
                -0.030696243816793495,
                -0.011303407048979957,
                -0.10718326820068354,
                0.011637134692389011
            ],
            [
                0.007828310873917058,
                -0.009074107007022972,
                -0.03380150439815512,
                -0.02140055807022604,
                -0.028387197113311235,
                0.047557339361595466,
                0.009936071446030427,
                0.014210987429683283,
                -0.06300162457839811,
                0.05372470620468802,
                -0.01580536396443531,
                0.019869425159295448,
                0.029614431408387768,
                -0.03507946102274344,
                -0.0761058276978728,
                -0.05973033292413032,
                -0.04473387340330994,
                -0.06903704288434713,
                0.0716972383640953,
                0.03380585798051112,
                -0.05378898280430022,
                -0.009909695139518827,
                0.024705826155533166,
                -0.06741233671599073,
                -0.005248963119548854,
                0.008318158374281388,
                -0.0851211400916302,
                0.015764142910272477,
                -0.06361780349067643,
                0.03554681513276922,
                -0.1074304624376527,
                -0.03493189479240138,
                -0.06380396342667984,
                -0.07282995438467652,
                0.029751947317457773,
                0.024707600324457672,
                0.011353578039921675,
                0.005387271336551621,
                0.05928410537792634,
                -0.07090563919301916,
                0.03964752702509413,
                -0.06226216442730863,
                -0.03046515159189592,
                0.0060595896705998116,
                0.09894168792085908,
                -0.03934447907287771,
                0.029437310484955858,
                -0.028195308781596144,
                -0.10552909452721458,
                -0.046056410613951375,
                -0.04160915761338288,
                0.09001122185720795,
                -0.016918454347353798,
                0.03865779473420745,
                -0.0243136969291611,
                -0.0005370032482091811,
                -0.0716941855318832,
                0.008462969848033502,
                -0.03073549760363104,
                0.03845393563787674,
                0.02427574584065348,
                -0.028570824556941925,
                -0.06499152092465739,
                -0.00442896989081058,
                -0.13538708007130631,
                -0.11109189225404334,
                0.03563880508926534,
                -0.05686366221321893,
                0.015235149229091745,
                0.050466714797312094,
                -0.025102984365808365,
                0.014316812527813192,
                -0.014594804175817537,
                -0.012688853528361268,
                0.04849907454892156,
                0.06973963679879516,
                0.03641540159531707,
                0.034930004956457206,
                -0.14427075993438623,
                -0.017609548310631433,
                -0.07600814037853697,
                -0.049862284950280056,
                0.02271002418730469,
                -0.04017518394819703,
                0.07610043934875613,
                0.0930695021254835,
                0.00896001512886634,
                0.001757497328113044,
                -0.05074220161227092,
                0.06146391648397911,
                -0.130706638973091,
                -0.03322036154198626,
                -0.0071655783839421556,
                0.11173894495970613,
                0.0577622615630076,
                -0.0002750704404177542,
                0.037884554539613695,
                0.10382715407599348,
                -0.056140010101863855,
                -0.019166656058148972,
                -0.015296871524289612,
                0.012485167173061279,
                -0.032596800412801205,
                0.03715593166932707,
                0.058736880119832934,
                0.10324023128816977,
                -0.016816549464277984,
                0.06629940461517148,
                0.0006840868303925159,
                0.030254013333687286,
                -0.007658751574978772,
                0.0007126640677346769,
                -0.017212812630634892,
                0.016502101612055613,
                -0.0296786649697138,
                -0.028466708123794218,
                0.0319048197107186,
                0.04760276976475313,
                0.04737729562461384,
                -0.0017431820328210014,
                -0.03528919513040566,
                -0.026690309727258308,
                -0.015874415215071325,
                -0.012535436058532178,
                -0.01083061004997176,
                -0.0560262087895495,
                -0.03644732276945629,
                0.010815546677336823
            ],
            [
                0.08846122211778046,
                -0.04742069543396337,
                -0.01682194602814812,
                0.0117899010770848,
                -0.03672090620211103,
                0.03795628148051515,
                0.10156913937084636,
                0.0090875522503068,
                -0.04406860116473727,
                -0.01909976037692763,
                0.04856088794876181,
                0.032839406921064976,
                0.028479543356005187,
                -0.0921740978156707,
                -0.014291561026557638,
                0.007855101513368759,
                0.013610523935149416,
                0.001807140247609539,
                0.05276269411405235,
                -0.03942159382418183,
                -0.052979767326808806,
                -0.023298349215203504,
                0.05057302468922664,
                0.01659933189000356,
                -0.017598038045213604,
                -0.03363302323480734,
                -0.005065243432986298,
                0.05232110058868124,
                -0.011421521122021409,
                0.05814009278784778,
                -0.021996815716651838,
                -0.04810285941688733,
                -0.010971213219446085,
                -0.05233393983129472,
                -0.0244452116577001,
                0.15938667442337076,
                -0.02865988823341997,
                0.03786619575273722,
                0.002085817075148492,
                0.03483760829042941,
                0.04138990945003356,
                0.055729670230055955,
                -0.07056829792025351,
                -0.017735451901126575,
                0.03207555650237447,
                -0.026844520830574304,
                0.0034188928064115163,
                0.027895224863559553,
                -0.01494031413160115,
                0.06447095221161,
                -0.010610659953379847,
                0.0280399156632768,
                0.05594933629220403,
                0.034902542093511305,
                0.08902578445686997,
                0.005152880777683637,
                -0.033118026747348435,
                -0.016297111139583334,
                0.08330189418152592,
                0.030841477630530165,
                0.07445830450215614,
                0.05890205652895033,
                -0.07963796749772876,
                0.09788072597702117,
                0.06379910587389755,
                0.010529904572679308,
                0.08406263946560569,
                -0.04034335127445549,
                -0.010524519141689422,
                0.08398631781925384,
                0.07812822138080212,
                -0.01357852133924927,
                0.10419684472968146,
                0.044017361479724224,
                0.0022554627548844134,
                0.0044754844893218106,
                0.08451261703573451,
                0.07312660013661709,
                0.052741296674769324,
                -0.14235713961746388,
                -0.08522165200801797,
                -0.025321709723831246,
                -0.08281478632440024,
                0.053532338056044126,
                -0.013102305086027607,
                -0.035036505483382954,
                -0.026715450521696254,
                -0.09575372080499178,
                0.021079241132015637,
                -0.04441251073508492,
                -0.1334644126546637,
                -0.02998788569595316,
                -0.02222527374240564,
                -0.024795624507695277,
                0.013883121226503628,
                0.10454470686742535,
                0.029679915838715647,
                0.09054082343061086,
                -0.11324005327507548,
                -0.015231701425070516,
                0.03747304316910033,
                -0.009225618605585647,
                0.003006455854274233,
                0.009338974852549779,
                -0.05900940532263659,
                0.006024743101120923,
                0.0017668816396465322,
                0.0720248896776329,
                -0.07490804721352344,
                0.07949036290128356,
                0.012003245655753893,
                0.006161681454933741,
                0.04504503123648885,
                -0.0602864016706921,
                0.037737953901262646,
                -0.13119153269913023,
                -0.010754962779257303,
                0.09663331966822741,
                0.061419698936839615,
                0.034043242348088205,
                0.018361662294612044,
                0.025881536098127256,
                -0.04689513300694346,
                -0.02455792444117885,
                0.05151230049589478,
                -0.07767251904753494,
                0.023699190397652715,
                0.022765592645719108
            ],
            [
                0.019642710170405316,
                0.05113273250355528,
                -0.025246932688942552,
                0.03806873690945654,
                -0.08414381205403047,
                -0.0043067879783506464,
                0.005874281486961253,
                0.030219211384994157,
                0.02661857926000161,
                -0.025056796163707266,
                0.010652930751966374,
                -0.008523664462107986,
                -0.03935146364669781,
                -0.024723401841165962,
                0.020420677235667768,
                -0.025946749038469257,
                0.0170539753088927,
                -0.05948431657464728,
                -0.0005089243406241888,
                -0.016929085162829004,
                0.0037351939581217663,
                -0.02328076233652672,
                0.03233328075591724,
                0.07471090266211979,
                -0.07889174647479487,
                -0.005295033886125996,
                -0.04311488875910262,
                0.00729427535873124,
                -0.02099073659214408,
                -0.03040718909284466,
                -0.06851012646972951,
                -0.08361847448965135,
                0.0048473453232825035,
                -0.00611741179448172,
                0.06567424555419167,
                -0.06965276181622956,
                0.10904519821539357,
                0.028696730071953964,
                0.04126497171257691,
                0.023854096487599383,
                -0.039242999154670014,
                -0.034100597163379986,
                0.11808255700226652,
                -0.02802767599734162,
                -0.06984454204617017,
                -0.08581080923486599,
                0.02987000136052751,
                0.06466881343712387,
                -0.006508092484028678,
                -0.03720727705417614,
                0.06535454142943854,
                0.03599508009118493,
                0.03730318514590166,
                0.03092995176600445,
                0.007355648206922723,
                -0.0026421419097338037,
                -0.040050768963858556,
                0.004960039682708766,
                -0.06058483703731738,
                -0.15199042715590158,
                0.07691224481107249,
                -0.029231434031130404,
                -0.044754375270682475,
                -0.09105369162103982,
                -0.05291532635208563,
                0.045779150559189526,
                0.0037693664208070686,
                0.02067620813343226,
                -0.14106627051026754,
                -0.010999962221798418,
                0.012751759193684759,
                -0.06601162799430413,
                0.0230487190464106,
                0.005060533177156509,
                -0.04417406151874454,
                -0.09406863808162186,
                -0.04343608417536531,
                0.01078114041331803,
                0.0238772717894032,
                -0.08270660049024847,
                -0.05567033835945344,
                0.03767078144842645,
                -0.0108710585056366,
                0.013456661280649984,
                -0.05509939773004532,
                -0.029763753945666275,
                -0.003866211094822541,
                -0.04497408446784466,
                0.05102021520423926,
                -0.005733472520534646,
                -0.07302468388067582,
                0.06572770516431523,
                0.056969849168265696,
                0.007237931695302679,
                -0.02983980632896477,
                0.007663185901325358,
                0.04110280327502635,
                0.041922442922859106,
                -0.09960310793410021,
                0.014491355962813321,
                0.037168245012980924,
                -0.060322899290910476,
                0.008496096003803976,
                -0.062267425661574276,
                0.09557645455910854,
                0.003918915132049919,
                0.10231126601728699,
                0.04505073067215119,
                0.05206724944062767,
                -0.04035493142839011,
                0.08658993755818473,
                -0.04016855460305068,
                0.0472439276094817,
                -0.052329562038024725,
                -0.10432195035266281,
                -0.06743555636094542,
                0.014379825732095546,
                0.04874155422049043,
                -0.05083135394371676,
                0.042775950271802865,
                -0.03845411587046585,
                -0.011703251368434576,
                -0.012073119825523962,
                -0.044770181666854404,
                0.020293774231300903,
                0.09374426842610069,
                0.0414187664704954,
                -0.05568893024360101
            ],
            [
                0.006705229501833841,
                0.01008163269427458,
                0.05144940530653098,
                0.047873249734222884,
                0.030428785586066567,
                -0.10620438123235247,
                0.01650550515953455,
                0.029356537894061605,
                0.027746635587808207,
                0.0007847853512560806,
                -0.08133183765529006,
                -0.03047151587931994,
                -0.06483448443852387,
                -0.0855904484791667,
                0.02487951393822339,
                -0.01295123798345349,
                -0.043014584500023885,
                0.00803436451615019,
                0.06653052683037905,
                0.036066414737680116,
                -0.024264603623566507,
                0.01347401178963583,
                0.04746985666957175,
                0.061311489504639737,
                0.05277693086690328,
                -0.0162772779795914,
                0.08273232068445613,
                -0.03808172693392167,
                0.07306359832508891,
                -0.017326490114901113,
                -0.01729192452813815,
                -0.01200826282054755,
                -0.02790149687054075,
                0.06469525710949778,
                0.005791492887642044,
                -0.08031955032137778,
                -0.03555439320933646,
                0.01235099775025522,
                -0.07160197357719601,
                0.02200007497400561,
                0.042332584266505095,
                -0.0514407904872008,
                -0.0052312251966942875,
                0.0027848844824869172,
                0.04008292881448412,
                0.08505468965420293,
                0.0039013007890622703,
                0.026707903596582726,
                -0.014687364071552569,
                0.0033935042601440013,
                -0.05910946497014395,
                0.022020409481101087,
                0.040109666858608124,
                -0.017500899495538062,
                0.08682938036543057,
                -0.022112843911994595,
                0.032254154175639815,
                0.03633852695493927,
                -0.00894433536297337,
                -0.005861063532315794,
                -0.08059436100064919,
                -0.015743031619480798,
                0.025841969059225745,
                0.012262532365717393,
                -0.05637676010996349,
                -0.03380668872947501,
                0.1105671579654682,
                -0.02708285395151237,
                -0.016470090905851532,
                0.0013850129347167386,
                0.026335596503882997,
                -0.0005805765562801171,
                0.07766207609160343,
                -0.06236519443292775,
                -0.035693089883504565,
                0.054629426716631256,
                -0.016198996544695296,
                0.01531277962087571,
                0.003493388586178413,
                0.06604509346376758,
                0.04678334468301772,
                0.05327707015822016,
                -0.0033812656891552785,
                0.0725058552716762,
                -0.0030333304324428895,
                -0.018763795778310884,
                0.030306152928419417,
                -0.007294521127297165,
                0.06473615906442591,
                -0.06565343297450468,
                0.024031977661016977,
                0.05752615550209686,
                -0.08162142656449725,
                -0.025050674815268948,
                0.0033629676706448636,
                0.024043633450151012,
                0.043154499078773924,
                -0.061572391914407124,
                -0.028140950751070416,
                -0.03497764836996097,
                -0.07136112223919228,
                -0.034191919202541256,
                -0.042519040603930414,
                -0.00863739251324093,
                0.0010023129886319224,
                -0.04836328044375661,
                -0.050713044778013444,
                -0.047572836585916746,
                0.012837063974242979,
                0.024476685722054022,
                -0.05218958544510937,
                -0.0678550713391087,
                -0.03940363159354998,
                -0.018448923533398533,
                0.047117093607397485,
                -0.019783513968761202,
                0.0353161759458983,
                0.004543524876515444,
                -0.04381051555160917,
                -0.011484751524391185,
                -0.09481084389318396,
                -0.03640513431312227,
                0.07461579800002395,
                -0.010663090738511443,
                -0.001874049055882129,
                -0.025853490124006263,
                0.028321417739051048,
                -0.050045023707051654
            ],
            [
                0.009967163691255406,
                0.04168956044425455,
                -0.06661439992080734,
                -0.03249065397395239,
                -0.15153960269685912,
                0.029087548463695465,
                -0.07330402057878709,
                -0.031051887253319616,
                -0.09184137868964183,
                -0.05080861271262958,
                -0.03371344527216322,
                -0.020041420842729588,
                0.01391436671036309,
                0.09943279020378971,
                -0.023597309691590847,
                0.03531179587378202,
                -0.014360044489459241,
                -0.026849829606399332,
                0.006324509704610347,
                0.019745203331111686,
                -0.008912776323560091,
                -0.01698213411583117,
                -0.019752329413038863,
                -0.1263610914873123,
                0.010505797045035912,
                0.08459674521759838,
                0.08511404436920936,
                0.02201391336968562,
                -0.06170292988495841,
                -0.030585335784760918,
                0.015994983207113865,
                0.03542375593490464,
                -0.006748144501955294,
                -0.06488588961697751,
                -0.04442572657424005,
                0.03493715705191219,
                0.025226902143993982,
                0.0413786912734748,
                0.059547938443641237,
                -0.0016925254167892796,
                -0.05249717001172359,
                0.002947591429722219,
                -0.0002466153025078696,
                0.018945822237664244,
                -0.018999385998935293,
                -0.04422412672063709,
                -0.07371325398099135,
                -0.08489812935759693,
                -0.017816872830928754,
                0.0392117618923964,
                -0.013070035176481483,
                -0.0038134110240233155,
                -0.036987294994829584,
                -0.1017479419510929,
                0.03176621397198724,
                0.07539910220928513,
                -0.06855137916923115,
                0.06389142771158354,
                0.07226986262775856,
                0.04517999024411378,
                -0.0017070161609232886,
                -0.009462152483240963,
                0.0129846003530216,
                -0.030792717783715427,
                -0.04974208643852739,
                0.10463400776445779,
                -0.027986086822510477,
                0.012576374578027311,
                0.03511257955151424,
                -0.034814264207482216,
                0.018409136463480937,
                0.006909432112248682,
                -0.002160585882031738,
                -0.016604798889646423,
                0.06450960598714701,
                -0.030596695769749514,
                0.009323680048917801,
                0.01662048289831373,
                0.055866409381259745,
                -0.0279566933407092,
                0.046631726107037814,
                -0.024688429071400075,
                0.031192238428863133,
                0.02575170938539692,
                -0.0194068782607166,
                -0.00898992175964484,
                -0.000980130372349723,
                -0.02880014860111861,
                -0.015797221076529647,
                0.07634850347643964,
                -0.003226729778266582,
                0.08372435544198573,
                -0.059310973678495804,
                -0.05043246694974298,
                -0.090070197930695,
                -0.010109769293375077,
                -0.02649096939060258,
                -0.014833995996649403,
                -0.008381956841410035,
                0.0017153598957957582,
                0.007613621410379749,
                0.11877799211307133,
                0.04676013276415271,
                -0.09042941628969216,
                -0.03759539288683667,
                0.04401598074165119,
                0.09614700367734066,
                0.016177710957467412,
                -0.027134911456668423,
                0.02662130398839862,
                -0.06306465941270033,
                -0.02198154250613017,
                -0.06755192838555844,
                0.06922640060294369,
                0.078537882640237,
                0.02633446059934725,
                0.041458272469953227,
                0.03908902799898237,
                0.03204732380368193,
                0.04265401613721176,
                -0.0004138819639638415,
                -0.04352303389009668,
                -0.0038826738918398356,
                0.012922468969165494,
                0.08163689218186616,
                -0.07366474707770243,
                0.04975998707892157,
                -0.0033085172168895827
            ],
            [
                0.07620737634564971,
                -0.010835144454032221,
                0.0642045916084171,
                0.0528643477561891,
                -0.023165488428147793,
                -0.05570507467098963,
                0.002278545168483931,
                0.08396231929339057,
                0.055393494086640335,
                -0.03922249140261439,
                -0.0021703839767575075,
                -0.0010314408072281062,
                0.029395894962853483,
                -0.036041343667730874,
                -0.02116666753282566,
                0.00171399662678431,
                -0.051349232223904244,
                0.0027046525344498347,
                -0.020643956429881347,
                -0.04208704279115369,
                0.06674760949074454,
                -0.02446469979272306,
                -0.008650267143006856,
                0.011065271281153827,
                -0.04143418832421183,
                0.027510076256409166,
                0.018983080711641696,
                0.11379365283091104,
                0.03095418716971765,
                -0.07856603533674676,
                0.03149200576479157,
                -0.007871485013680424,
                0.009466014672631128,
                -0.013425858623746064,
                0.0710033425271197,
                -0.058922099132453665,
                -0.00684014493209199,
                0.112077515524877,
                -0.0036811886608422366,
                -0.025525729102367507,
                0.03296503609154896,
                -0.0973462831452223,
                -0.017318780099383334,
                0.010278322071725406,
                -0.06640559515536362,
                0.03168417717344805,
                0.06182294699586451,
                -0.01936608469129114,
                -0.05260289741693679,
                -0.06222979312559006,
                0.07093191597774508,
                -0.08605787658681087,
                -0.03477251486090134,
                -0.016099699444216964,
                0.07115845471893505,
                0.01112268423013933,
                0.04622397336346488,
                0.023079697176316225,
                0.04167870067733185,
                0.03765396171330772,
                -0.030121374528021334,
                0.0013533871105759572,
                0.005426958580175221,
                -0.007135138275977992,
                -0.05728130944041525,
                0.000606814492404088,
                -0.05342796710138413,
                -0.009576234320110873,
                -0.025827438846271946,
                -0.0564563406604563,
                -0.005523731030529564,
                0.04140311282885987,
                -0.0032431417771811746,
                0.04270427758279155,
                -0.03749079560091157,
                -0.07155266725964599,
                0.11541548277706706,
                0.013195424289718144,
                -0.054318533772942684,
                0.072480831717669,
                -0.022098418339930884,
                0.02123332514284431,
                0.09074764151372737,
                -0.029336150336886278,
                -0.038562428345937795,
                0.00013915093108815319,
                -0.01892985158575461,
                -0.0659741304369026,
                -0.04431893317132803,
                -0.0690994160026539,
                -0.025775139318149204,
                0.04350622521650466,
                -0.0652605337865599,
                0.041036608717430964,
                -0.009097232041057534,
                -0.05750387681209263,
                0.08613280824862893,
                -0.04922620058133377,
                -0.04039613316755296,
                0.05190152793633298,
                0.028278456989954674,
                0.06409132941853452,
                0.07346862007601222,
                0.005402789380392318,
                0.05246382310809768,
                0.08492942182273555,
                0.015388726808830501,
                -0.03394329929382651,
                0.043308402552393925,
                0.01596403093882705,
                0.0070582620260337195,
                0.03052808760235195,
                0.08299628125328294,
                -0.03277937090455565,
                -0.027923273869798797,
                -0.07080237182214756,
                0.06837615727038869,
                0.0009241940849123242,
                0.02924075070939544,
                0.09545895086029448,
                0.08308116954251966,
                -0.05312263277090899,
                -0.08629179927165803,
                0.07128954899645708,
                -0.014528017141210759,
                -0.00447390338256785,
                0.06786679470220626,
                0.0008592191484861699
            ],
            [
                0.0368141920112961,
                0.07506860509150949,
                -0.033677910584555576,
                -0.08817355376329875,
                -0.010631944822614446,
                -0.05094860253878142,
                -0.0290019433176814,
                -0.0471378673067476,
                -0.02445256795033595,
                -0.016105149684872616,
                0.09418869446136917,
                0.022587874161141577,
                -0.003554175546637687,
                -0.018022335291877706,
                -0.06179709903320672,
                -0.012244115461831606,
                0.05375870465699979,
                -0.06367610012335191,
                -0.05342203969226738,
                0.07363999503274449,
                -0.045858020528202044,
                0.022548731817027042,
                -0.07091712236517156,
                -0.07448055711201884,
                -0.07070270180025386,
                -0.009784218838086998,
                -0.050002930855880645,
                0.008676034624172836,
                0.011740616747964871,
                0.07571706004515016,
                -0.0002665724587865851,
                0.012663807014272917,
                0.016029431519494066,
                0.029166726332112283,
                -0.06624572781803864,
                0.026502267922738274,
                0.06900541603675085,
                0.003643382039224845,
                0.008061493096227728,
                -0.034597177376484954,
                -0.05906921350979025,
                0.03950847769147662,
                0.015386575334188995,
                0.07676107083159339,
                -0.10911934957368634,
                0.005673634795750961,
                0.01508416667498694,
                -0.009318373635726946,
                0.03551603707495247,
                -0.025339803033225677,
                0.03723486393521425,
                -0.0014109869230851614,
                0.027857026185902946,
                0.07351235385678913,
                0.0363244648536854,
                0.017966117029813152,
                -0.040129960198448104,
                -0.05055105590346889,
                0.030455387579755015,
                -0.01758539016686569,
                -0.008832656272775366,
                -0.040429343715899554,
                0.00489084911724818,
                0.0706549685526984,
                0.012533153375592802,
                -0.08249467912508093,
                0.011517385506312398,
                0.022350802957250795,
                -0.027060145990433552,
                0.027946942985336818,
                0.024262303758579927,
                0.016216160322722724,
                -0.025634309528948563,
                -0.01275540297055364,
                0.05231513074554061,
                -0.056128542624222615,
                -0.05637711719822089,
                -0.06196646036954662,
                0.035468992336221514,
                -0.01052464161074163,
                -0.08603151176039382,
                -0.012822657443574829,
                -0.0032117322033152554,
                -0.021314682230322603,
                0.038766559414960204,
                -0.007195690395157494,
                0.0800281081370787,
                0.031830078944559366,
                0.07644770454234888,
                0.03319035697963842,
                0.0544966359367418,
                0.017470772996262433,
                0.012304429019789372,
                0.024606111173214158,
                -0.024467397958386705,
                -0.022812296587819005,
                0.028252197484404096,
                -0.00757551695884111,
                0.08829329526725305,
                0.05686919521284798,
                -0.01572167660244654,
                0.015592102466574746,
                0.036576273621947535,
                0.006640295638884944,
                0.005791752654728728,
                0.00406073469102977,
                -0.03956046917844804,
                0.05673698266778021,
                -0.06815822146428795,
                -0.0802776112787459,
                0.0043133248535833085,
                -0.056260541056165445,
                0.05002748990709854,
                0.023968266643481104,
                -0.031193056442601244,
                0.00444441274430906,
                0.05401764740436409,
                0.05147703672172553,
                -0.022009556148750994,
                0.027352925815789873,
                -0.08627677870207093,
                -0.09034841088168839,
                -0.029826357177844327,
                0.05669662233482947,
                -0.04050908906811224,
                0.026750730745837153,
                -0.03726565975319179,
                0.02031434950975157
            ],
            [
                0.08202817663827533,
                -0.05344860365148722,
                -0.0309426975601992,
                0.033873450970237765,
                0.008592058254809505,
                0.011000677112016601,
                0.05995726945192734,
                0.03393608374770603,
                -0.008827789173018082,
                -0.021764228862112083,
                0.01458162909958125,
                0.023453347445765247,
                -0.045540713787647805,
                -0.09175124678438012,
                0.016010871509205694,
                0.08074340901841803,
                -0.026398665414114293,
                -0.030923178072812404,
                -0.0003654597093264961,
                -0.047018834201931634,
                0.0008933345028613102,
                0.030542611414628478,
                0.07972536201082786,
                0.013967781521823087,
                0.0538323304126069,
                -0.018805419978538962,
                -0.10068312783418182,
                -0.038874015594836456,
                -0.04044806070275099,
                0.000465846072953517,
                -0.04893758558048186,
                0.042567656479573085,
                -0.06083442448235788,
                -0.029202127068653407,
                0.10095083982634422,
                0.006621221780639716,
                0.03910083248832875,
                0.012462057376627226,
                -0.06668773714984215,
                -0.006110209373210972,
                -0.05500994639885981,
                0.019820389438112557,
                -0.06179924309306781,
                -0.1008421488117527,
                -0.00395928400390109,
                0.01338616167203093,
                0.018864476998358446,
                -0.03364299020187121,
                -0.04539052916776659,
                0.08425939720519658,
                -0.036215977993077145,
                0.00323106563826276,
                -0.03854541229839775,
                -0.014485776328453498,
                -0.09236619993111542,
                -0.006456930069476607,
                0.03560010090918278,
                0.02330197806073544,
                -0.009235438097760954,
                -0.015269567998210326,
                -0.028926992963945825,
                0.03488096698673716,
                -0.02599436958996499,
                -0.008446707843760254,
                -0.08650396688232843,
                0.027023715019260194,
                0.10279271898609633,
                0.07624957712515817,
                0.08553450018299344,
                0.04347884267968897,
                0.03589767136357249,
                0.05577789485213288,
                0.051485480978247095,
                0.02764108971577486,
                0.03185470400782904,
                0.015141224072100345,
                0.04597657980587214,
                -0.023778359733633188,
                0.027870073028125934,
                -0.003253564572732078,
                -0.012623872251756419,
                -0.02935824277893095,
                -0.05489456832717132,
                0.0064308180727662345,
                -0.05220236543345158,
                -0.02661795734420787,
                -0.024463786315530672,
                -0.03641769882505073,
                -0.11169767287221435,
                -0.04587679093276142,
                -0.04621623242418796,
                0.11491071168783594,
                -0.04422172851236877,
                0.04684768713813312,
                -0.022029044209311354,
                0.007787015843232355,
                -0.008878861591810592,
                -0.011493982672953979,
                0.04549211693761901,
                0.0008698023541866193,
                0.0019790652828703763,
                -0.046919785296936786,
                0.030397931020849447,
                0.02455560327149513,
                -0.05817116693348993,
                -0.021052799404908586,
                -0.033449845545800896,
                -0.02108462853163811,
                0.019388364285458197,
                0.03894261755718848,
                -0.03253453360462105,
                0.06163225547299768,
                0.006244598305153126,
                0.049208311600287706,
                0.1094977204565414,
                0.00045970005223500203,
                0.06592953289070388,
                0.02888893070482205,
                -0.03791403884571617,
                -0.004382822722639805,
                0.06246752912592087,
                0.03670334552890572,
                0.009631347698720474,
                -0.014315146428997063,
                0.001979986127306727,
                0.042519242046325595,
                -0.10317705811059866,
                0.012903983975972148
            ],
            [
                0.020343159416525296,
                -0.009254278025666895,
                0.052873010164777835,
                -0.026946623218137948,
                -0.15092654380355533,
                0.08632973390538995,
                0.014069400589915527,
                0.0623855445367525,
                0.006369141366225092,
                0.05638424749863751,
                0.010813570176553537,
                0.04376451552014644,
                0.039707386429543336,
                0.08087475718369365,
                -0.04916935676911411,
                0.05196447160092667,
                -0.0241179245526944,
                -0.006720960637319682,
                0.013095194319813897,
                -0.03108514303124116,
                0.05331009635655141,
                0.02008800532980582,
                0.07825702927172538,
                -0.0870944218555981,
                -0.0440221171010216,
                -0.012375473125896375,
                0.05840896887975764,
                0.03819719233206125,
                -0.06708205100554146,
                0.0024460918306993453,
                0.025739452241471623,
                -0.004509222306144577,
                0.06526342108969893,
                -0.08817019372045201,
                0.046180139036516306,
                -0.0073447152232454195,
                0.028605419484254692,
                0.002174867150256074,
                -0.007117313746174193,
                0.07517877937639401,
                -0.04149100960305132,
                -0.004830711794104109,
                0.028628355975073218,
                0.13494816113993174,
                0.006581855449858283,
                0.06717455418286009,
                0.03467370116678476,
                0.017570613081692756,
                0.006794849796293792,
                -0.10277087583587961,
                -0.06390490828707132,
                -0.023452779567542617,
                0.10858646066576759,
                0.028670816757248092,
                0.03019986892852202,
                -0.09841015163630412,
                -0.03299994980920242,
                0.0013850293380185006,
                0.015616159567262087,
                -0.008338713281995721,
                0.08191176928434367,
                0.03875557090176655,
                0.018506370919275702,
                0.06305118026641528,
                0.014878280900415044,
                -0.03889731236698653,
                -0.049303925379990864,
                -0.013593884728584403,
                -0.020675339644717267,
                0.055107424964903874,
                0.07555381560063457,
                0.017993387198276298,
                0.030395997107140613,
                -0.019339412701968078,
                0.03674079488333415,
                -0.031741649320403936,
                -0.024292193664341967,
                0.060865122549685666,
                0.036240480847348704,
                -0.11888890113026462,
                -0.03468026649206451,
                0.05548335508123291,
                -0.0064653566633774435,
                -0.05924337278043136,
                -0.014803515439572586,
                0.02019526877488263,
                -0.030811520213073543,
                -0.017031684233997514,
                0.028272960408550346,
                -2.893105106725116e-05,
                -0.015673050701376194,
                0.02696812662838197,
                -0.039559721233894986,
                0.007731897684159623,
                0.08339556364847316,
                -0.0020722150112605885,
                -0.029047999251734215,
                0.04861076678147028,
                -0.006576695823644072,
                -0.030852910400190323,
                0.022126203209083036,
                0.010952565844174025,
                -0.09420734947685308,
                -0.09618633339423285,
                -0.02530684499306652,
                0.09425479688923136,
                -0.015189092515447717,
                -0.03602449710426575,
                0.09462511860029334,
                0.026621257248934424,
                0.036827081197280315,
                0.058704104467488985,
                -0.0380566251265131,
                -0.005356117337070442,
                0.07481176484733758,
                0.00028127822093563544,
                -0.009342939342816159,
                0.042242667950097755,
                0.04819308295972454,
                0.04683148231375959,
                0.02429249649660901,
                -0.14787669689822464,
                0.008626297249538787,
                -0.10748036241471108,
                0.06595994915768319,
                0.03178374268569063,
                -0.067026870182875,
                0.034798511631324254
            ],
            [
                -0.018132346298638448,
                0.05903920071932906,
                -0.053090592024394465,
                -0.05909041482947484,
                0.050477796176285915,
                0.007886927594271642,
                0.13481922496873183,
                -0.012603215741800153,
                -0.06124018014927731,
                -0.06890882952761986,
                0.038429929017352205,
                0.007939421947523631,
                -0.024482965022887604,
                0.021448590240253168,
                -0.06662903218130622,
                0.0938652361189471,
                -0.008813506320063622,
                0.014944049831821718,
                0.03716000781111775,
                -0.1266614981634532,
                0.015073227702994968,
                -0.028194134833185548,
                0.03681274986867261,
                0.06596529209426717,
                0.044900322374392794,
                -0.0076606640102559465,
                -0.04864082954647348,
                0.0853423602807957,
                -0.006379643235499128,
                -0.056425889369747885,
                -0.0025152131770362182,
                0.027018913769901422,
                -0.04630438001043612,
                0.0068558866230681165,
                0.02709319186278336,
                0.025559510813842175,
                0.02185894576336596,
                0.0537250138094635,
                0.017148348563886785,
                0.06810187034319598,
                0.05063488931975637,
                -0.03685173022344407,
                0.018222740461180192,
                0.016944398302509198,
                0.07574720727217216,
                -0.08125196750512952,
                0.05438150310959711,
                0.09948579312280677,
                0.015460908714584887,
                -0.029081924282394783,
                0.02329167862496435,
                0.05279927907917337,
                0.045167415379115484,
                -0.037426178105246,
                0.05624646270855082,
                -0.10255342176504072,
                -0.07682036212638031,
                0.037697256320650685,
                0.06065337368554535,
                0.04789237639825689,
                -0.058477052267709474,
                0.02604927380123337,
                0.09434620765704013,
                -0.012440795153289873,
                -0.006250929993420675,
                0.03620243357718302,
                -0.07544177426102916,
                0.03948542208699314,
                -0.04818543816764787,
                0.05079516226302664,
                0.048251722015991545,
                -0.03507191766371068,
                0.01226790946889079,
                0.01505263385669438,
                -0.06050052187304595,
                0.09396879370826404,
                0.006420218397929662,
                -0.11770522245693112,
                -0.06533990964722489,
                0.08446315920182636,
                0.0425605744634211,
                -0.0026117066511583058,
                -0.03656392361138488,
                0.09873338689119615,
                -0.02297101332851709,
                -0.04199323169255423,
                0.0681308355067137,
                -0.019591160101475668,
                0.06860526675767084,
                0.06557720033847055,
                0.05710946674327204,
                -0.06531713771565975,
                -0.062270325471518534,
                0.0277636648016904,
                -0.026626269079823774,
                0.01786593621793207,
                -0.018641439644213106,
                -0.039849644565633585,
                -0.016014016167809474,
                -0.021622817950946664,
                0.01805106211963235,
                0.006363941356257127,
                -0.0344871088043921,
                -0.006794604616335853,
                0.0028819650524054405,
                0.029860091015410598,
                -0.1130470003429063,
                -0.04992648666300086,
                0.038206395682110664,
                0.005613188287806199,
                -0.0030410223309225238,
                0.04905665698114208,
                -0.006780132006668671,
                -0.05430405779732671,
                -0.06033180481796354,
                -0.055731559865885044,
                0.027538713317767083,
                -0.010470074083845296,
                0.024211293030137773,
                -0.03396364184108316,
                -0.004084576619374481,
                0.10085344266230127,
                0.0433456970785029,
                -0.046995987566316115,
                0.10074831737315194,
                -0.02139377962130281,
                0.055138508305081484,
                0.0830479697773438
            ],
            [
                0.007887164141783273,
                0.03402888017194482,
                0.018765562886814094,
                -0.06089805639202206,
                0.09864632994611862,
                0.047021250790111595,
                -0.04114103937069127,
                0.020370124364588932,
                -0.08376402119614097,
                0.04877359949338222,
                0.05466382636670823,
                0.007885797779545968,
                0.03654804222462866,
                0.07024090306491658,
                0.05066335167258321,
                -0.009890370124152347,
                0.06406963940448754,
                0.023166855783297396,
                -0.014152606059797868,
                -0.014017531197867215,
                0.07011967962486748,
                -0.06301622436720002,
                -0.02005838796828958,
                0.022081102363815167,
                -0.0373606821746675,
                -0.034271579675033755,
                -0.1562226974140374,
                0.016448698344197953,
                0.09167439127931708,
                0.026267013875202014,
                -0.03809062344872669,
                0.025156154715155008,
                -0.03602915378343173,
                0.02248543274539403,
                -0.039794499326655984,
                0.09881392426519707,
                -0.058698044700034764,
                -0.035056266747774366,
                0.04664603035579297,
                0.03978936401364413,
                0.02918436018102942,
                0.01389505597708133,
                -0.024301934848391722,
                0.018371561478614087,
                0.0024554524069607523,
                -0.05050231117451014,
                0.023393113378522404,
                -0.03251087218593572,
                0.03389595260502054,
                0.03052782927513957,
                0.01688892844445859,
                -0.05537888982803859,
                0.026955201023616943,
                0.01604588100361083,
                0.11960258333394184,
                -0.03450227431141343,
                -0.02714239479137125,
                0.01294116313601713,
                0.01896640250994866,
                -0.07584084641927792,
                -0.038622778155386825,
                -0.06856017539627385,
                -0.013840128390180095,
                0.058833028063400086,
                0.05138750327759899,
                -0.06340585821941132,
                -0.026857606546832318,
                0.07391192329348169,
                -0.042044850476323246,
                -0.10242332225407146,
                0.011291758329854108,
                -0.029078608568823813,
                -0.016506454943536236,
                -0.03850219782412272,
                -0.006015589131429548,
                0.01549127478862612,
                0.14518640818225392,
                -0.03028806834706028,
                -0.047457515694127796,
                -0.006202067993109164,
                -0.08140548583569879,
                0.1275751301679581,
                -0.05121905982093198,
                0.06120638574104408,
                0.06991728278789597,
                -0.11370782965017977,
                -0.022213286390286288,
                0.0016826900535390793,
                0.01203624743743375,
                -0.11936095443427129,
                -0.06104212663418376,
                0.014232641041517507,
                -0.01133559836359119,
                -0.024393222940013476,
                -0.1030432208318579,
                -0.04248765306523094,
                -0.053892738117955696,
                -0.0035858364052557003,
                -0.05388508572266818,
                0.00262104841679899,
                0.06757931068547453,
                0.07972795892648557,
                -0.04534003824075264,
                -0.00010764431384890157,
                0.07122529051747215,
                0.04108131172528287,
                0.04174326173338398,
                0.03747298985136003,
                0.08199266802154798,
                0.014096346860886975,
                -0.02134216410975157,
                0.05341484596698268,
                -0.05717474945658679,
                0.02438640416582679,
                -0.06493160899105847,
                0.0717620757940918,
                -0.03839528151020025,
                -0.05046661137385009,
                0.062175806566965974,
                -0.06029109300834628,
                -0.026970600144054273,
                0.04670789809383733,
                -0.03768827973829699,
                -0.07865360245999846,
                0.019529704150845623,
                0.09759056016999938,
                -0.005597270135363876,
                0.01608326708613112
            ],
            [
                -0.011679429822483876,
                0.0218324722391999,
                0.08787767609863666,
                -0.08913346345742258,
                0.06336012641218942,
                0.013394134371575325,
                -0.07579001673609531,
                -0.04767752459046099,
                -0.033531239221279985,
                0.022294699942953123,
                0.09236163732399015,
                -0.007160405958931156,
                -0.014226860344802816,
                0.06540407216710224,
                -0.1305082237451205,
                0.008278653677051738,
                0.017645591676794886,
                -0.053737812503425846,
                -0.04133841485480228,
                0.056413628756602864,
                -0.03222351967580756,
                0.08562700616628585,
                0.07865195888725802,
                0.05729133917305216,
                0.10785006245564804,
                0.04481094247886031,
                -0.0024970114578589443,
                -0.02064370285580595,
                0.0542374317918574,
                0.053474516947004315,
                -0.02266068584463085,
                -0.0008167341451198873,
                -0.05056812901993659,
                -0.04397867964519516,
                -0.0018694193157462375,
                -0.05501602316877203,
                -0.0035339330469657763,
                0.010120858572852122,
                -0.026216967336207195,
                -0.0156395703005609,
                0.010788205446035135,
                -0.08268321323986938,
                -0.034777553510962796,
                -0.02486353072095219,
                0.029310493614553068,
                0.04018257215134158,
                0.028299466184491636,
                0.10872747344597006,
                0.05792180709540203,
                0.008113696263889275,
                -0.02359847384075733,
                0.017184368442352563,
                0.0011552420744248035,
                -0.0024776398308858235,
                -0.007496587503145992,
                0.03338607011108548,
                -0.02942917351700044,
                0.029943140571979752,
                0.03069897571789545,
                -0.00540916992277202,
                0.008296324494304383,
                -0.12068449125899328,
                -0.06423525952448592,
                -0.0668111629370723,
                -0.05268989950254073,
                -0.02653171744300452,
                -0.0009335343214031566,
                -0.1049630365884259,
                0.04031347404515123,
                0.018497912901425842,
                -0.016874695127480757,
                0.12656799817312409,
                0.019808183431716263,
                -0.0012645242685875172,
                -0.015715838701739142,
                -0.049917679530444015,
                -0.008123886500158498,
                0.02278388841362156,
                0.029565643662539904,
                -0.05999971471596878,
                0.038680016940325475,
                -0.00517197153219284,
                -0.0066662075755657,
                -0.0841709863362199,
                -0.005309407466728152,
                0.024380106649639476,
                0.010631601099824674,
                -0.010664964879460677,
                0.13116703528534962,
                0.03466755433457327,
                -0.030856397146557846,
                -0.0066951665363921865,
                0.02988798009864636,
                0.005424993479465909,
                -0.1282289394849607,
                0.0016410843261786157,
                -0.03321839784197571,
                0.05556603086790787,
                0.0012853350177678647,
                0.028555656026114644,
                -0.03154918826350722,
                0.006545395492530159,
                -0.04807555103915988,
                0.05294625113634723,
                0.0634793734383978,
                -0.08901947034447072,
                -0.01374957392210382,
                -0.015502206020731416,
                0.049569860876531015,
                -0.020520884989826415,
                -0.04091376179329725,
                -0.03858458593745012,
                0.049021109503188956,
                0.003369136740624086,
                -0.01927116870528655,
                0.03482337871284417,
                -0.02635493684004665,
                -0.07272789252751145,
                0.06774108892153628,
                -0.047446129424992003,
                -0.017355772900528667,
                0.07760268368557727,
                -0.04074775610182658,
                0.03715415232549541,
                -0.027891700178675972,
                -0.014330255502323709,
                0.05901052827756061,
                -0.09387021019117175
            ],
            [
                -0.01114410264110158,
                0.031081440181122164,
                -0.07243127538569014,
                -0.001608200758451822,
                0.08113848678710087,
                0.02019764600996957,
                -0.008717041729736913,
                -0.01269609650374613,
                0.054219939545338415,
                -0.004518836148387831,
                0.04197006374847115,
                -0.009877354218314028,
                -0.016720110470739617,
                0.10952151591365424,
                0.02996904436295767,
                -0.00812860359223443,
                -0.01631924224521544,
                -0.06058465023516765,
                -0.07793592806208856,
                0.051878227948936595,
                0.01860855555783039,
                -0.02424334141116973,
                0.04228765879861653,
                0.05519296671107077,
                0.029159581796687147,
                -0.007270569325224567,
                0.0778740453081229,
                -0.0011776295408272967,
                0.027892712175287725,
                -0.060617762312128454,
                0.08096965490614141,
                -0.02657069237873623,
                -0.06416792494985452,
                -0.04725925618435742,
                -0.07113780883199974,
                -0.10250140650131451,
                0.007763315964369265,
                0.025340752868864117,
                -0.0010881590077489846,
                -0.07246709267682191,
                -0.015560579372914392,
                0.04239862402081954,
                -0.010971918487003037,
                -0.04088892405623297,
                -0.021789796183358103,
                -0.14412232129930058,
                0.02152861375178112,
                -0.0326908750360409,
                0.09053547483316096,
                -0.02150176785180739,
                0.029661865517308723,
                0.013801058356627389,
                -0.025673642400339602,
                -0.05592506383410297,
                0.013843199682676282,
                0.010772924254655786,
                -0.01696057373476919,
                -0.022866280422149755,
                -0.027191619509385083,
                0.04220516997306364,
                -0.04127729551325797,
                -0.022882091241927752,
                0.09012643159483678,
                0.0602350703015237,
                -0.016750748631715055,
                -0.0086488166560068,
                0.05812799354189742,
                0.07359475881697976,
                -0.053374666064378205,
                0.050140624383548264,
                0.015622098747454422,
                0.032334451672869094,
                -0.0427636820663918,
                -0.002220914160353693,
                -0.04868457465852631,
                0.03464839548514695,
                -0.055884560142854346,
                0.040533390871798136,
                -0.020421515735746278,
                0.07130301257602693,
                -0.025643275157638184,
                -0.12233180935978646,
                -0.05844296907009004,
                -0.12074464756780776,
                -0.03337775810452926,
                -0.09507036483472689,
                0.05011582348506285,
                0.04808686980781819,
                -0.012638151568956257,
                -0.0195783147590635,
                0.06101576255551447,
                -0.03192577892294431,
                0.04819148666273029,
                0.04165515658411861,
                0.09233542063145887,
                -0.0876130915171807,
                -0.005150929451506813,
                0.04228643079403502,
                -0.009406434287362394,
                0.054731574956822786,
                -0.019634959979554664,
                0.0688414008652097,
                0.07181604871726913,
                0.05286691165170003,
                0.01823835183210214,
                -0.013081700575234077,
                0.0773835039349627,
                0.03032168540234229,
                0.007056034877717367,
                0.09052206508411008,
                -0.014477470062828521,
                0.005101907542777307,
                0.0028769846060853715,
                0.05369326037755744,
                -0.0772633183952028,
                -0.004661292197603817,
                0.0010952397458672343,
                0.0027531709972626844,
                0.019258068939644355,
                -0.009575590671578819,
                -0.08638229111163977,
                0.07430163849818941,
                -0.018861196888470152,
                -0.02784632066613084,
                0.0048779528410179615,
                -0.011671199773030662,
                -0.017146131758775923,
                0.013930929388110013
            ],
            [
                -0.09738739911759466,
                0.012784597124609824,
                0.07893645226005336,
                -0.006898028278964537,
                0.02049987558717796,
                -0.0021323004563292714,
                -0.10588352597554852,
                0.058866529119444885,
                -0.07863857880201325,
                -0.0007937411503869608,
                0.042830916911914374,
                -0.004290148167128092,
                0.010355655719323665,
                -0.0433642112150179,
                0.030971196575522386,
                0.05232551526279115,
                0.09340657267725418,
                -0.01666861134846335,
                0.02024875101786355,
                0.020582386049940154,
                -0.007225400479499671,
                0.010340447536120572,
                -0.003471041353742353,
                -0.050372960982210904,
                -0.05638515151468016,
                0.019426786299846753,
                -0.0026832748497501143,
                0.029202482156037976,
                0.06766419812454783,
                0.024299632551145128,
                0.0387956609025333,
                -0.005311392869797131,
                0.010006495977785423,
                0.033662972853392155,
                0.020365045183839605,
                -0.028071995574062942,
                0.007468983249770287,
                0.03853853099179079,
                0.06618123800716684,
                0.09513711860460951,
                -0.01013742710470901,
                -0.014874638062825516,
                -0.0439556901760394,
                -0.0049822138098515704,
                0.03800310837674334,
                0.008927068535779651,
                -0.004416524449181489,
                0.13128829585852125,
                -0.028293349538216522,
                -0.03783862843897597,
                0.03837597657867605,
                -0.06949122555833184,
                0.04023906653347206,
                -0.017473110155642003,
                0.12179356702005258,
                0.022501886435443107,
                0.011429131258492414,
                0.0223292966415093,
                0.08252436888756236,
                -0.010872914430033496,
                -0.03622325522915532,
                -0.0069586035164230405,
                0.04197269060173051,
                0.06038192389879531,
                0.026830279905174698,
                -0.1291004033106703,
                -0.0006992029768819194,
                0.006838719654878396,
                -0.011121875248578276,
                0.05641240284241516,
                0.027612637484419,
                0.03149048594550516,
                0.07858430579192778,
                0.010112225339597696,
                0.06527696983065859,
                -0.032663118762988545,
                0.03012991428144143,
                0.006832879484939041,
                -0.05313509528857614,
                -0.025961167912148482,
                -0.01959529885101661,
                -0.00527865171775438,
                -0.07237410015084608,
                0.06224165442761303,
                -0.08490802956433932,
                0.08072759603275614,
                0.0476511434774303,
                -0.09556953069814059,
                -0.046849983923885,
                -0.037259494801369995,
                -0.03337982147654251,
                0.005587588233841209,
                0.03432437125688081,
                -0.07434350353787147,
                -0.010332128384024794,
                0.012388518625268774,
                0.00754853727626356,
                0.014075706641915627,
                0.013795378349010253,
                0.03174829646873628,
                0.028336435941068952,
                0.05525001735138742,
                -0.047921021697984685,
                0.000638866333244307,
                -0.05664090748986457,
                -0.06602682237737564,
                0.003895405936053277,
                0.016969905301356458,
                0.011469882962548953,
                -0.05750954344673772,
                -0.06061808202622542,
                -0.11756939089825345,
                0.026825478540081032,
                -0.11352220135209806,
                0.004327633024822383,
                -0.04381766763281772,
                -0.08291216840659141,
                0.08027194342186227,
                0.06335399455051052,
                0.01156330182756189,
                -0.04367649425949801,
                -0.07836626817335568,
                0.04419617571873223,
                0.0038973808640789848,
                -0.04031241064153207,
                0.004826712693506784,
                0.04761538814460522,
                -0.10223604158720395
            ],
            [
                -0.014898517038369098,
                0.08017419294796069,
                -0.007501331587390622,
                -0.050120525452606535,
                0.00897932060589309,
                -0.0023185138196769504,
                0.04309136067147229,
                0.02776191286717823,
                -0.03162842690858576,
                0.07844338339516202,
                0.056682461032071633,
                -0.0010198764262650416,
                0.06538304270068844,
                0.02681162956160687,
                -0.031857866992983874,
                0.030095727784933336,
                -0.006917584373904362,
                -0.03845852165390538,
                0.019855833576618888,
                0.016653111552963538,
                -0.0866190754768875,
                -0.02105774378899561,
                0.020652654345653953,
                0.1090481670992,
                0.05104912211726289,
                -0.03615702051544539,
                -0.01734733246922429,
                0.008431836840180583,
                -0.07009468129762012,
                -0.03612230416671269,
                -0.017935968525649187,
                0.0019988600094795685,
                0.03454097133896587,
                -0.03780672549249561,
                0.0776200062496,
                -0.07804764584973818,
                -0.0002726469757424025,
                0.01990850220624864,
                -0.012736070426969328,
                0.08069825716016617,
                -0.0019587126667944205,
                -0.03826617602346385,
                -0.005816803446446374,
                0.019616355088891924,
                -0.028868049457572577,
                0.026918639864758703,
                0.010304427787209537,
                -0.012695176128528484,
                -0.08245263785185893,
                -0.00045114621615166274,
                -0.003970628125657969,
                0.024754617270822024,
                -0.03903180376236409,
                -0.06781397821831125,
                0.06478635278139737,
                0.012782946706654847,
                -0.02014352130383909,
                -0.011651442033841464,
                0.018339983838313968,
                0.06098562091269878,
